W1 = np.array([[ 6.85212970e-02,  1.26087640e-02,  9.35512534e-03,
         7.63099791e-02, -6.92518712e-02, -5.58669789e-02,
        -5.74259593e-02, -7.79696347e-02,  3.95189177e-02,
         8.59661530e-02, -6.88694252e-02, -9.55430161e-02,
         9.35278607e-02,  7.26770454e-02,  5.46625799e-02,
        -3.27280761e-02, -2.88224024e-02,  6.11950746e-02,
        -5.53029655e-03,  9.19718981e-02, -7.87170068e-02,
         3.40080279e-02, -8.33326294e-02, -4.10881156e-02,
         1.51830756e-02, -7.15193039e-02,  8.09573810e-02,
         1.21470772e-02, -2.42070185e-02, -5.78557164e-02,
        -2.83948848e-02,  8.45405265e-02, -4.88543732e-02,
         2.44576595e-02, -1.99258865e-02, -4.53320091e-02,
         5.56844992e-02, -3.94045819e-02, -2.46548340e-02,
         1.67231875e-02,  5.68989175e-02, -2.38764690e-02,
         9.04540995e-02,  1.14146275e-01, -1.18806393e-02,
         6.78121919e-03,  5.36513065e-02,  1.65947301e-01,
         1.53954210e-01,  8.09886735e-04,  1.19465387e-01,
        -1.10908988e-02, -1.73678493e-02, -5.95181920e-02,
         5.49682388e-02, -3.36529505e-02,  2.04934750e-02,
        -8.96812223e-02,  1.31709318e-02,  1.55382284e-04,
         1.88911435e-02,  1.08605052e-01, -2.65970473e-02,
         1.97350665e-02,  1.90263576e-01,  1.27996825e-01,
         4.85795810e-02,  1.95154084e-01,  5.70518131e-02,
         2.04799188e-01,  2.07513688e-01,  1.06065697e-01,
         1.63845267e-01, -8.27158172e-03,  8.26394472e-04,
         1.06619721e-01,  9.97756528e-02, -3.56325622e-02,
        -1.82325022e-02, -6.04061762e-02,  8.50827319e-02,
         4.67225160e-02, -2.14073948e-02,  9.90713593e-02,
         4.34330550e-02,  1.90240496e-01,  2.04703230e-01,
         1.98866455e-01,  1.87247251e-01,  1.00443135e-01,
         1.81346662e-01,  1.92383290e-01,  2.02055753e-02,
         1.41724359e-01,  1.61571590e-01,  4.25163383e-02,
         6.19380673e-03, -4.62367752e-02, -7.49054329e-02,
         2.47910130e-02,  4.56024193e-03,  7.32913675e-02,
        -3.72919112e-02,  3.14388461e-04,  6.55546875e-02,
         1.52637166e-01,  5.61475473e-02,  2.14023831e-01,
         1.07065835e-01,  1.24858198e-01,  1.88905185e-01,
         5.45566329e-02,  2.15329273e-01,  9.15871843e-02,
         9.34738638e-02,  7.70897083e-02,  6.53898259e-02,
         3.30391114e-02,  4.71425432e-03, -7.67204686e-03,
        -8.76771097e-02,  4.58668205e-02,  2.27881563e-02,
        -5.47552194e-03,  1.89884448e-01,  1.66395794e-01,
         8.21310246e-02,  1.35755524e-01,  2.50140788e-01,
         1.63575357e-01,  2.47147852e-01,  9.72878620e-02,
         8.30792711e-02,  2.26083634e-01,  1.50801942e-01,
         1.27673042e-01,  1.17343428e-01,  9.92687792e-02,
         8.89735213e-02,  8.33246899e-02, -4.86882673e-02,
         3.90838725e-02,  5.00105319e-02,  7.20196029e-02,
         1.52238268e-01,  7.81721196e-02,  1.17893702e-01,
         1.70056945e-01,  2.54964702e-01,  2.07176670e-01,
         1.12501828e-01,  9.71797635e-02,  1.08698404e-01,
         5.49401851e-02,  1.07531947e-01,  1.34600353e-01,
         1.68003311e-01, -5.74798715e-02, -7.21898651e-02,
         1.41047121e-02,  6.23347496e-02,  2.99732308e-02,
         1.41464467e-01,  1.29331260e-01,  1.28373781e-01,
         2.89530033e-02,  1.37541903e-01,  1.09909066e-01,
         2.80968216e-01,  2.17996645e-01,  2.34371475e-01,
         1.64575121e-01,  1.57545570e-01,  1.59660371e-01,
         1.63162151e-01,  6.10552921e-02,  7.96895609e-02,
         2.88723114e-02,  4.25692886e-02,  6.31905947e-02,
         2.85919273e-02,  5.46648912e-02,  5.69624593e-02,
         8.97125133e-02,  9.35200287e-02,  1.89430304e-01,
         8.39321165e-02,  7.63188558e-02,  2.68290640e-01,
         1.49371061e-01,  2.76363496e-01,  1.40498886e-01,
         2.60288523e-01,  1.29894364e-01,  1.55359117e-01,
         2.12182540e-01,  3.09347833e-02,  1.04857768e-02,
         9.63650083e-02, -1.85740649e-02,  2.49090838e-02,
         1.03528334e-01, -5.78772815e-02,  4.93395243e-02,
         2.80975546e-02,  6.95686601e-02,  1.05737941e-01,
         9.61765860e-02,  1.34419190e-01,  2.88456879e-01,
         2.16039311e-01,  2.51811590e-01,  1.65848743e-01,
         1.34121545e-01,  2.10960114e-01,  3.31354631e-02,
         1.69249552e-01,  7.36546062e-02, -2.94388083e-02,
        -8.46816145e-03,  7.22231972e-03, -6.86339640e-02,
         1.38141165e-01,  1.44760982e-01,  1.37380409e-01,
         2.96089940e-02,  9.24768588e-02,  7.67061029e-02,
         1.55710073e-01,  2.36173714e-01,  2.49704381e-01,
         1.79643921e-01,  2.04797524e-01,  7.36588031e-02,
         3.84636203e-02,  1.23677591e-01,  8.12863059e-02,
        -1.81747230e-02,  1.12726850e-01,  3.53159653e-02,
        -8.80037854e-02, -1.17013199e-02,  4.55340971e-02,
         1.74095200e-02,  9.25404379e-02,  1.37689557e-01,
         6.95057283e-02,  5.31934791e-02,  1.07259319e-01,
         2.74145940e-01,  1.44913924e-01,  1.30898375e-01,
         6.48482568e-02,  2.23368535e-01,  2.04659927e-01,
         1.08407728e-01,  2.09397299e-01,  1.09031995e-01,
         7.85119895e-02,  1.89777725e-02, -6.80854639e-02,
        -1.75398153e-02,  4.25262523e-02, -1.10926979e-02,
         4.86970551e-02,  6.78840553e-02,  5.76798660e-02,
         1.43598306e-01,  2.02550267e-01,  1.59086059e-01,
         2.32556776e-01,  1.72676204e-01,  1.82668515e-01,
         5.47691381e-02,  1.30077158e-01,  5.60600035e-02,
         1.02951520e-01,  5.50138559e-02,  1.13324874e-01,
        -1.21200874e-02,  8.64236884e-02, -3.41200264e-02,
         1.61625654e-02,  6.81995242e-02,  8.80310165e-02,
         1.22005238e-01,  1.99192092e-01,  1.88285687e-01,
         1.03721097e-01,  6.04935742e-02,  8.77198887e-02,
         1.80339747e-01,  2.65565903e-01,  1.82273612e-01,
         9.25935593e-02,  2.31456454e-01,  1.67122148e-01,
         1.09201683e-01,  8.63792536e-02, -1.64765131e-02,
         5.62601482e-02,  3.64538925e-02,  1.12138962e-01,
         9.81898227e-02,  1.22236195e-01,  6.41005842e-02,
         1.36379572e-01,  1.87803016e-01,  1.84393360e-01,
         1.74242482e-01,  2.47249593e-01,  1.12295841e-01,
         9.97149151e-02,  1.94306665e-01,  1.33289351e-01,
         1.27758192e-01,  6.63995993e-02, -2.17996597e-02,
         5.65436791e-02, -4.58603973e-02,  3.51762642e-02,
        -3.34584384e-02,  7.57173190e-02,  5.54746740e-02,
         1.37347654e-01,  6.99781507e-02,  5.83082344e-02,
         1.34711010e-01,  1.42917384e-01,  1.11625181e-01,
         1.01632245e-01,  2.52965708e-01,  1.41490876e-01,
         1.95484587e-01,  1.23513931e-01, -9.48861434e-03,
         1.18207526e-02,  1.22815058e-01,  1.93829609e-02,
         7.25670206e-02,  5.46941540e-02,  6.24330107e-02,
         5.73599877e-02, -6.40730610e-02, -7.67756535e-02,
        -3.72055495e-03,  5.94494216e-02,  4.18239119e-02,
         1.62718310e-01,  1.30803029e-01,  3.03866790e-02,
         1.39696702e-01,  1.60141570e-01,  3.27824366e-02,
         1.35422870e-01,  4.92840625e-02,  7.22591532e-02,
        -4.88649317e-02,  6.28346982e-02,  8.44260247e-02,
        -6.78991007e-02,  7.69026345e-02,  3.57164403e-02,
        -7.27051486e-02, -5.81697873e-02,  2.14222182e-03,
         7.82710969e-02, -5.80279005e-02,  6.05127374e-02,
         5.56865116e-02,  3.64853086e-02, -2.19189296e-02,
         5.41505234e-02,  8.95687511e-02,  8.01743527e-02,
        -7.57562236e-02,  1.23262545e-02,  5.03759716e-02,
         1.04359778e-02,  7.75465855e-02, -6.68277489e-02,
         6.88830463e-02, -5.29161279e-02, -1.23340159e-03,
         1.84288424e-02, -8.38924707e-02,  7.63506458e-02,
        -9.51871541e-02,  4.47818071e-02,  2.36254531e-02,
        -3.47639020e-02, -6.31068032e-02, -1.57663103e-02,
         6.15615449e-02,  8.14996244e-02, -7.99572846e-02,
        -6.38813036e-02,  9.99535045e-02,  8.17061924e-02,
         5.50161509e-02]])

W2 = np.array([[-2.84687036],
       [-2.7944754 ],
       [-2.75436656],
       [-2.86096346],
       [-2.89009683],
       [-2.83498064],
       [-2.79452922],
       [-2.83185558],
       [-2.88868543],
       [-2.88895139],
       [-2.84781085],
       [-2.69975298],
       [-2.83465508],
       [-2.84757632],
       [-2.87417418],
       [-2.91443138],
       [-2.84892479],
       [-2.91521532],
       [-2.90235455],
       [-2.82096025],
       [-2.63283537],
       [-2.91340299],
       [-2.74143346],
       [-2.92945343],
       [-2.82034789],
       [-2.84712241]])

